digraph Tree {
node [shape=box, style="filled", color="black"] ;
0 [label="X[350] <= 0.516\ngini = 0.9\nsamples = 60000\nvalue = [5923, 6742, 5958, 6131, 5842, 5421, 5918, 6265, 5851\n5949]", fillcolor="#e2e53902"] ;
1 [label="X[568] <= 0.002\ngini = 0.881\nsamples = 39160\nvalue = [5433, 623, 4772, 1312, 5353, 3266, 4775, 5773, 3081\n4772]", fillcolor="#a339e503"] ;
0 -> 1 [labeldistance=2.5, labelangle=45, headlabel="True"] ;
2 [label="X[430] <= 0.002\ngini = 0.839\nsamples = 24084\nvalue = [697, 414, 904, 847, 5133, 1668, 2771, 5568, 1439\n4643]", fillcolor="#a339e506"] ;
1 -> 2 ;
3 [label="X[405] <= 0.01\ngini = 0.705\nsamples = 9667\nvalue = [258, 404, 565, 424, 503, 503, 315, 4974, 836, 885]", fillcolor="#a339e577"] ;
2 -> 3 ;
4 [label="(...)", fillcolor="#C0C0C0"] ;
3 -> 4 ;
123 [label="(...)", fillcolor="#C0C0C0"] ;
3 -> 123 ;
246 [label="X[211] <= 0.112\ngini = 0.788\nsamples = 14417\nvalue = [439, 10, 339, 423, 4630, 1165, 2456, 594, 603, 3758]", fillcolor="#39e5c515"] ;
2 -> 246 ;
247 [label="(...)", fillcolor="#C0C0C0"] ;
246 -> 247 ;
324 [label="(...)", fillcolor="#C0C0C0"] ;
246 -> 324 ;
439 [label="X[435] <= 0.002\ngini = 0.793\nsamples = 15076\nvalue = [4736, 209, 3868, 465, 220, 1598, 2004, 205, 1642\n129]", fillcolor="#e5813914"] ;
1 -> 439 ;
440 [label="X[489] <= 0.088\ngini = 0.403\nsamples = 6018\nvalue = [4596, 11, 476, 155, 36, 436, 198, 18, 66, 26]", fillcolor="#e58139be"] ;
439 -> 440 ;
441 [label="(...)", fillcolor="#C0C0C0"] ;
440 -> 441 ;
548 [label="(...)", fillcolor="#C0C0C0"] ;
440 -> 548 ;
627 [label="X[346] <= 0.002\ngini = 0.77\nsamples = 9058\nvalue = [140, 198, 3392, 310, 184, 1162, 1806, 187, 1576, 103]", fillcolor="#7be53938"] ;
439 -> 627 ;
628 [label="(...)", fillcolor="#C0C0C0"] ;
627 -> 628 ;
735 [label="(...)", fillcolor="#C0C0C0"] ;
627 -> 735 ;
858 [label="X[489] <= 0.104\ngini = 0.821\nsamples = 20840\nvalue = [490, 6119, 1186, 4819, 489, 2155, 1143, 492, 2770\n1177]", fillcolor="#e2e53915"] ;
0 -> 858 [labeldistance=2.5, labelangle=-45, headlabel="False"] ;
859 [label="X[290] <= 0.135\ngini = 0.757\nsamples = 10274\nvalue = [397, 327, 328, 4413, 251, 1892, 499, 243, 1091, 833]", fillcolor="#39e55e4d"] ;
858 -> 859 ;
860 [label="X[486] <= 0.229\ngini = 0.597\nsamples = 6272\nvalue = [162, 299, 302, 3866, 86, 618, 250, 54, 475, 160]", fillcolor="#39e55e92"] ;
859 -> 860 ;
861 [label="(...)", fillcolor="#C0C0C0"] ;
860 -> 861 ;
980 [label="(...)", fillcolor="#C0C0C0"] ;
860 -> 980 ;
1101 [label="X[297] <= 0.022\ngini = 0.817\nsamples = 4002\nvalue = [235, 28, 26, 547, 165, 1274, 249, 189, 616, 673]", fillcolor="#399de52e"] ;
859 -> 1101 ;
1102 [label="(...)", fillcolor="#C0C0C0"] ;
1101 -> 1102 ;
1199 [label="(...)", fillcolor="#C0C0C0"] ;
1101 -> 1199 ;
1318 [label="X[234] <= 0.002\ngini = 0.66\nsamples = 10566\nvalue = [93, 5792, 858, 406, 238, 263, 644, 249, 1679, 344]", fillcolor="#e2e53976"] ;
858 -> 1318 ;
1319 [label="X[402] <= 0.002\ngini = 0.463\nsamples = 7859\nvalue = [57, 5690, 395, 151, 139, 227, 384, 60, 610, 146]", fillcolor="#e2e539b3"] ;
1318 -> 1319 ;
1320 [label="(...)", fillcolor="#C0C0C0"] ;
1319 -> 1320 ;
1415 [label="(...)", fillcolor="#C0C0C0"] ;
1319 -> 1415 ;
1488 [label="X[658] <= 0.002\ngini = 0.783\nsamples = 2707\nvalue = [36, 102, 463, 255, 99, 36, 260, 189, 1069, 198]", fillcolor="#e539c045"] ;
1318 -> 1488 ;
1489 [label="(...)", fillcolor="#C0C0C0"] ;
1488 -> 1489 ;
1596 [label="(...)", fillcolor="#C0C0C0"] ;
1488 -> 1596 ;
}