digraph Tree {
node [shape=box, style="filled", color="black"] ;
0 [label="checking_balance_unknown <= 0.5\nentropy = 0.888\nsamples = 700\nvalue = [486, 214]", fillcolor="#e581398f"] ;
1 [label="months_loan_duration <= 22.5\nentropy = 0.982\nsamples = 424\nvalue = [245, 179]", fillcolor="#e5813945"] ;
0 -> 1 [labeldistance=2.5, labelangle=45, headlabel="True"] ;
3 [label="credit_history_critical <= 0.5\nentropy = 0.911\nsamples = 239\nvalue = [161, 78]", fillcolor="#e5813983"] ;
1 -> 3 ;
7 [label="other_debtors_guarantor <= 0.5\nentropy = 0.962\nsamples = 184\nvalue = [113, 71]", fillcolor="#e581395f"] ;
3 -> 7 ;
9 [label="entropy = 0.984\nsamples = 167\nvalue = [96, 71]", fillcolor="#e5813942"] ;
7 -> 9 ;
10 [label="entropy = 0.0\nsamples = 17\nvalue = [17, 0]", fillcolor="#e58139ff"] ;
7 -> 10 ;
8 [label="purpose_car (new) <= 0.5\nentropy = 0.55\nsamples = 55\nvalue = [48, 7]", fillcolor="#e58139da"] ;
3 -> 8 ;
15 [label="entropy = 0.0\nsamples = 29\nvalue = [29, 0]", fillcolor="#e58139ff"] ;
8 -> 15 ;
16 [label="entropy = 0.84\nsamples = 26\nvalue = [19, 7]", fillcolor="#e58139a1"] ;
8 -> 16 ;
4 [label="savings_balance_< 100 DM <= 0.5\nentropy = 0.994\nsamples = 185\nvalue = [84, 101]", fillcolor="#399de52b"] ;
1 -> 4 ;
17 [label="entropy = 0.965\nsamples = 64\nvalue = [39, 25]", fillcolor="#e581395c"] ;
4 -> 17 ;
18 [label="entropy = 0.952\nsamples = 121\nvalue = [45, 76]", fillcolor="#399de568"] ;
4 -> 18 ;
2 [label="employment_length_4 - 7 yrs <= 0.5\nentropy = 0.549\nsamples = 276\nvalue = [241, 35]", fillcolor="#e58139da"] ;
0 -> 2 [labeldistance=2.5, labelangle=-45, headlabel="False"] ;
5 [label="installment_plan_none <= 0.5\nentropy = 0.622\nsamples = 226\nvalue = [191, 35]", fillcolor="#e58139d0"] ;
2 -> 5 ;
11 [label="entropy = 0.934\nsamples = 40\nvalue = [26, 14]", fillcolor="#e5813976"] ;
5 -> 11 ;
12 [label="credit_history_critical <= 0.5\nentropy = 0.509\nsamples = 186\nvalue = [165, 21]", fillcolor="#e58139df"] ;
5 -> 12 ;
13 [label="entropy = 0.68\nsamples = 111\nvalue = [91, 20]", fillcolor="#e58139c7"] ;
12 -> 13 ;
14 [label="entropy = 0.102\nsamples = 75\nvalue = [74, 1]", fillcolor="#e58139fc"] ;
12 -> 14 ;
6 [label="entropy = 0.0\nsamples = 50\nvalue = [50, 0]", fillcolor="#e58139ff"] ;
2 -> 6 ;
}