digraph Tree {
node [shape=box] ;
0 [label="duration <= 473.5\ngini = 0.208\nsamples = 31647\nvalue = [27909, 3738]"] ;
1 [label="poutcome_success <= 0.5\ngini = 0.135\nsamples = 27466\nvalue = [25471, 1995]"] ;
0 -> 1 [labeldistance=2.5, labelangle=45, headlabel="True"] ;
2 [label="age <= 60.5\ngini = 0.104\nsamples = 26607\nvalue = [25137, 1470]"] ;
1 -> 2 ;
3 [label="month_mar <= 0.5\ngini = 0.094\nsamples = 26042\nvalue = [24759, 1283]"] ;
2 -> 3 ;
4 [label="gini = 0.088\nsamples = 25826\nvalue = [24640, 1186]"] ;
3 -> 4 ;
5 [label="gini = 0.495\nsamples = 216\nvalue = [119, 97]"] ;
3 -> 5 ;
6 [label="duration <= 205.5\ngini = 0.443\nsamples = 565\nvalue = [378, 187]"] ;
2 -> 6 ;
7 [label="gini = 0.301\nsamples = 314\nvalue = [256, 58]"] ;
6 -> 7 ;
8 [label="gini = 0.5\nsamples = 251\nvalue = [122, 129]"] ;
6 -> 8 ;
9 [label="duration <= 132.5\ngini = 0.475\nsamples = 859\nvalue = [334, 525]"] ;
1 -> 9 ;
10 [label="pdays <= 98.5\ngini = 0.317\nsamples = 157\nvalue = [126, 31]"] ;
9 -> 10 ;
11 [label="gini = 0.444\nsamples = 57\nvalue = [38, 19]"] ;
10 -> 11 ;
12 [label="gini = 0.211\nsamples = 100\nvalue = [88, 12]"] ;
10 -> 12 ;
13 [label="housing_yes <= 0.5\ngini = 0.417\nsamples = 702\nvalue = [208, 494]"] ;
9 -> 13 ;
14 [label="gini = 0.37\nsamples = 498\nvalue = [122, 376]"] ;
13 -> 14 ;
15 [label="gini = 0.488\nsamples = 204\nvalue = [86, 118]"] ;
13 -> 15 ;
16 [label="duration <= 793.5\ngini = 0.486\nsamples = 4181\nvalue = [2438, 1743]"] ;
0 -> 16 [labeldistance=2.5, labelangle=-45, headlabel="False"] ;
17 [label="poutcome_success <= 0.5\ngini = 0.446\nsamples = 2788\nvalue = [1850, 938]"] ;
16 -> 17 ;
18 [label="contact_unknown <= 0.5\ngini = 0.43\nsamples = 2654\nvalue = [1823, 831]"] ;
17 -> 18 ;
19 [label="gini = 0.463\nsamples = 1908\nvalue = [1214, 694]"] ;
18 -> 19 ;
20 [label="gini = 0.3\nsamples = 746\nvalue = [609, 137]"] ;
18 -> 20 ;
21 [label="month_may <= 0.5\ngini = 0.322\nsamples = 134\nvalue = [27, 107]"] ;
17 -> 21 ;
22 [label="gini = 0.235\nsamples = 103\nvalue = [14, 89]"] ;
21 -> 22 ;
23 [label="gini = 0.487\nsamples = 31\nvalue = [13, 18]"] ;
21 -> 23 ;
24 [label="contact_cellular <= 0.5\ngini = 0.488\nsamples = 1393\nvalue = [588, 805]"] ;
16 -> 24 ;
25 [label="duration <= 854.5\ngini = 0.5\nsamples = 461\nvalue = [234, 227]"] ;
24 -> 25 ;
26 [label="gini = 0.426\nsamples = 78\nvalue = [54, 24]"] ;
25 -> 26 ;
27 [label="gini = 0.498\nsamples = 383\nvalue = [180, 203]"] ;
25 -> 27 ;
28 [label="poutcome_success <= 0.5\ngini = 0.471\nsamples = 932\nvalue = [354, 578]"] ;
24 -> 28 ;
29 [label="gini = 0.477\nsamples = 879\nvalue = [346, 533]"] ;
28 -> 29 ;
30 [label="gini = 0.256\nsamples = 53\nvalue = [8, 45]"] ;
28 -> 30 ;
}