digraph Tree {
node [shape=box, style="filled", color="black"] ;
0 [label="checking_balance_unknown <= 0.5\ngini = 0.433\nsamples = 700\nvalue = [478, 222]", fillcolor="#e5813989"] ;
1 [label="months_loan_duration <= 20.5\ngini = 0.493\nsamples = 425\nvalue = [237, 188]", fillcolor="#e5813935"] ;
0 -> 1 [labeldistance=2.5, labelangle=45, headlabel="True"] ;
2 [label="amount <= 1285.5\ngini = 0.451\nsamples = 224\nvalue = [147, 77]", fillcolor="#e5813979"] ;
1 -> 2 ;
3 [label="gini = 0.5\nsamples = 81\nvalue = [41, 40]", fillcolor="#e5813906"] ;
2 -> 3 ;
4 [label="gini = 0.384\nsamples = 143\nvalue = [106, 37]", fillcolor="#e58139a6"] ;
2 -> 4 ;
5 [label="checking_balance_> 200 DM <= 0.5\ngini = 0.495\nsamples = 201\nvalue = [90, 111]", fillcolor="#399de530"] ;
1 -> 5 ;
6 [label="gini = 0.486\nsamples = 182\nvalue = [76, 106]", fillcolor="#399de548"] ;
5 -> 6 ;
7 [label="gini = 0.388\nsamples = 19\nvalue = [14, 5]", fillcolor="#e58139a4"] ;
5 -> 7 ;
8 [label="installment_plan_none <= 0.5\ngini = 0.217\nsamples = 275\nvalue = [241, 34]", fillcolor="#e58139db"] ;
0 -> 8 [labeldistance=2.5, labelangle=-45, headlabel="False"] ;
9 [label="employment_length_1 - 4 yrs <= 0.5\ngini = 0.429\nsamples = 45\nvalue = [31, 14]", fillcolor="#e581398c"] ;
8 -> 9 ;
10 [label="gini = 0.342\nsamples = 32\nvalue = [25, 7]", fillcolor="#e58139b8"] ;
9 -> 10 ;
11 [label="gini = 0.497\nsamples = 13\nvalue = [6, 7]", fillcolor="#399de524"] ;
9 -> 11 ;
12 [label="age <= 22.5\ngini = 0.159\nsamples = 230\nvalue = [210, 20]", fillcolor="#e58139e7"] ;
8 -> 12 ;
13 [label="gini = 0.473\nsamples = 13\nvalue = [8, 5]", fillcolor="#e5813960"] ;
12 -> 13 ;
14 [label="gini = 0.129\nsamples = 217\nvalue = [202, 15]", fillcolor="#e58139ec"] ;
12 -> 14 ;
}