digraph Tree {
node [shape=box] ;
0 [label="duration <= 471.5\ngini = 0.208\nsamples = 31647\nvalue = [27924, 3723]"] ;
1 [label="poutcome_success <= 0.5\ngini = 0.135\nsamples = 27442\nvalue = [25445, 1997]"] ;
0 -> 1 [labeldistance=2.5, labelangle=45, headlabel="True"] ;
2 [label="month_mar <= 0.5\ngini = 0.104\nsamples = 26561\nvalue = [25102, 1459]"] ;
1 -> 2 ;
3 [label="gini = 0.096\nsamples = 26289\nvalue = [24958, 1331]"] ;
2 -> 3 ;
4 [label="gini = 0.498\nsamples = 272\nvalue = [144, 128]"] ;
2 -> 4 ;
5 [label="duration <= 163.5\ngini = 0.476\nsamples = 881\nvalue = [343, 538]"] ;
1 -> 5 ;
6 [label="gini = 0.422\nsamples = 254\nvalue = [177, 77]"] ;
5 -> 6 ;
7 [label="gini = 0.389\nsamples = 627\nvalue = [166, 461]"] ;
5 -> 7 ;
8 [label="duration <= 834.5\ngini = 0.484\nsamples = 4205\nvalue = [2479, 1726]"] ;
0 -> 8 [labeldistance=2.5, labelangle=-45, headlabel="False"] ;
9 [label="poutcome_success <= 0.5\ngini = 0.448\nsamples = 2973\nvalue = [1964, 1009]"] ;
8 -> 9 ;
10 [label="gini = 0.432\nsamples = 2837\nvalue = [1942, 895]"] ;
9 -> 10 ;
11 [label="gini = 0.271\nsamples = 136\nvalue = [22, 114]"] ;
9 -> 11 ;
12 [label="contact_unknown <= 0.5\ngini = 0.487\nsamples = 1232\nvalue = [515, 717]"] ;
8 -> 12 ;
13 [label="gini = 0.472\nsamples = 900\nvalue = [344, 556]"] ;
12 -> 13 ;
14 [label="gini = 0.5\nsamples = 332\nvalue = [171, 161]"] ;
12 -> 14 ;
}