digraph Tree {
node [shape=box, style="filled", color="black"] ;
0 [label="checking_balance_unknown <= 0.207\ngini = 0.415\nsamples = 700\nvalue = [494, 206]", fillcolor="#e5813995"] ;
1 [label="amount <= 0.552\ngini = 0.484\nsamples = 421\nvalue = [248, 173]", fillcolor="#e581394d"] ;
0 -> 1 [labeldistance=2.5, labelangle=45, headlabel="True"] ;
2 [label="months_loan_duration <= -0.776\ngini = 0.46\nsamples = 338\nvalue = [217, 121]", fillcolor="#e5813971"] ;
1 -> 2 ;
3 [label="purpose_education <= 1.908\ngini = 0.29\nsamples = 74\nvalue = [61, 13]", fillcolor="#e58139c9"] ;
2 -> 3 ;
4 [label="gini = 0.21\nsamples = 67\nvalue = [59, 8]", fillcolor="#e58139dc"] ;
3 -> 4 ;
5 [label="gini = 0.408\nsamples = 7\nvalue = [2, 5]", fillcolor="#399de599"] ;
3 -> 5 ;
6 [label="purpose_car (new) <= 0.646\ngini = 0.483\nsamples = 264\nvalue = [156, 108]", fillcolor="#e581394e"] ;
2 -> 6 ;
7 [label="gini = 0.458\nsamples = 203\nvalue = [131, 72]", fillcolor="#e5813973"] ;
6 -> 7 ;
8 [label="gini = 0.484\nsamples = 61\nvalue = [25, 36]", fillcolor="#399de54e"] ;
6 -> 8 ;
9 [label="property_other <= 0.362\ngini = 0.468\nsamples = 83\nvalue = [31, 52]", fillcolor="#399de567"] ;
1 -> 9 ;
10 [label="credit_history_delayed <= 1.433\ngini = 0.408\nsamples = 56\nvalue = [16, 40]", fillcolor="#399de599"] ;
9 -> 10 ;
11 [label="gini = 0.365\nsamples = 50\nvalue = [12, 38]", fillcolor="#399de5ae"] ;
10 -> 11 ;
12 [label="gini = 0.444\nsamples = 6\nvalue = [4, 2]", fillcolor="#e581397f"] ;
10 -> 12 ;
13 [label="amount <= 1.994\ngini = 0.494\nsamples = 27\nvalue = [15, 12]", fillcolor="#e5813933"] ;
9 -> 13 ;
14 [label="gini = 0.305\nsamples = 16\nvalue = [13, 3]", fillcolor="#e58139c4"] ;
13 -> 14 ;
15 [label="gini = 0.298\nsamples = 11\nvalue = [2, 9]", fillcolor="#399de5c6"] ;
13 -> 15 ;
16 [label="installment_plan_none <= -0.773\ngini = 0.209\nsamples = 279\nvalue = [246, 33]", fillcolor="#e58139dd"] ;
0 -> 16 [labeldistance=2.5, labelangle=-45, headlabel="False"] ;
17 [label="amount <= -0.519\ngini = 0.429\nsamples = 45\nvalue = [31, 14]", fillcolor="#e581398c"] ;
16 -> 17 ;
18 [label="personal_status_female <= 0.393\ngini = 0.142\nsamples = 13\nvalue = [12, 1]", fillcolor="#e58139ea"] ;
17 -> 18 ;
19 [label="gini = 0.0\nsamples = 11\nvalue = [11, 0]", fillcolor="#e58139ff"] ;
18 -> 19 ;
20 [label="gini = 0.5\nsamples = 2\nvalue = [1, 1]", fillcolor="#e5813900"] ;
18 -> 20 ;
21 [label="purpose_car (new) <= 0.646\ngini = 0.482\nsamples = 32\nvalue = [19, 13]", fillcolor="#e5813951"] ;
17 -> 21 ;
22 [label="gini = 0.426\nsamples = 26\nvalue = [18, 8]", fillcolor="#e581398e"] ;
21 -> 22 ;
23 [label="gini = 0.278\nsamples = 6\nvalue = [1, 5]", fillcolor="#399de5cc"] ;
21 -> 23 ;
24 [label="other_debtors_none <= -1.418\ngini = 0.149\nsamples = 234\nvalue = [215, 19]", fillcolor="#e58139e8"] ;
16 -> 24 ;
25 [label="amount <= -0.433\ngini = 0.463\nsamples = 11\nvalue = [7, 4]", fillcolor="#e581396d"] ;
24 -> 25 ;
26 [label="gini = 0.444\nsamples = 6\nvalue = [2, 4]", fillcolor="#399de57f"] ;
25 -> 26 ;
27 [label="gini = 0.0\nsamples = 5\nvalue = [5, 0]", fillcolor="#e58139ff"] ;
25 -> 27 ;
28 [label="amount <= 0.464\ngini = 0.125\nsamples = 223\nvalue = [208, 15]", fillcolor="#e58139ed"] ;
24 -> 28 ;
29 [label="gini = 0.073\nsamples = 184\nvalue = [177, 7]", fillcolor="#e58139f5"] ;
28 -> 29 ;
30 [label="gini = 0.326\nsamples = 39\nvalue = [31, 8]", fillcolor="#e58139bd"] ;
28 -> 30 ;
}